{"W1": [[0.4967141530112327, -0.33847245047896035, 0.05844000298151869, 0.8168682000651932, -0.23415337472333597, 0.5179338271282651, 1.4698691619123851, 0.5712502235020903, -0.4694743859349521, 0.0507074440104997, -0.7618384655432767, -0.46572975357025687, 0.8948089072662644, -1.913280244657798, -1.7249178325130328], [-0.5622875292409727, -1.231513522059426, -0.036203749665170454, -1.3272995263574823, -1.4123037013352915, 2.822742456094777, -0.31747604015649367, -0.06687197238167811, -1.4247481862134568, -0.7843521387307402, -0.19207034576477205, -1.1509935774223028, 0.8165315052678815, -0.600638689918805, -0.2916937497932768], [-0.6017066122293969, 2.4408099965047327, -0.3780625478300726, -1.384406580488608, 0.822544912103189, -1.943466047364582, -1.3256568349393296, -2.0130650348347854, -1.3281860488984305, -0.10914315541329599, 0.8083457942941001, 0.1713682811899705, -0.5684882098189431, -0.3011036955892888, -1.4785219903674274], [-0.7198442083947086, 0.7256385238637822, 1.1436777180970619, 0.25814772737433683, -1.763040155362734, -1.2724440304936124, -1.2722892598299573, -0.6859581247870211, 0.6116762888408679, 0.9501860761059472, 1.7238972869699078, -0.8392175232226385, -1.5926467201382237, 0.33126343140356396, 0.9755451271223592]], "b1": [[0.0, -0.39995692303995223, -0.15164652565966685, -0.1319408942103875, 0.0, 0.5479265397136556, 0.34014522539901, -0.03944916351259163, 0.0, -0.08766597407591753, -0.5504105311497551, 0.0, 0.7128320916300704, 0.0, 0.0]], "W2": [[-0.47917423784528995, -0.18565897666381712, -1.1063349740060282], [-1.6192663192809897, 0.8593145186748987, 1.732511027490442], [-0.04954641809256523, 0.1897966709308262, 1.1529085485210628], [-0.5253852250974984, 0.4610127178576078, 1.3186849246091494], [-0.03582603910995154, 1.5646436558140062, -2.6197451040897444], [1.6647017456252342, 0.8137432913122805, -1.8685028147899845], [0.3004289199720585, -0.2899506300294298, -2.1259583158455264], [0.5117411595290263, 1.3648877594198399, -0.5598925209692518], [-0.8084936028931876, -0.5017570435845365, 0.9154021177020741], [0.236473880098908, -0.3040417655772457, 0.3798262244843396], [0.012961699500159105, -0.7284399749646534, 1.0791477214680716], [-0.3276621465977682, -0.39210815313215763, -1.4635149481321186], [0.62462837223003, 0.8433986971484422, -0.9057380634915462], [-0.23458713337514692, -1.4153707420504142, -0.42064532276535904], [-0.3427145165267695, -0.8022772692216189, -0.16128571166600914]], "b2": [[-0.039918128753556895, 0.9751019724916431, -0.9351838437380866]]}